{
  "layers": [
    {
      "activation": 1,
      "biases": [
        1.3010860199472492,
        3.2019722550880965,
        0.45898906754592694,
        -2.3083276991357766,
        1.3923412380852507,
        -1.0667690375594008
      ],
      "cols": 6,
      "rows": 4,
      "weights": [
        [
          1.6547569357109164,
          -5.016381544854437,
          2.3469905980107413,
          2.5854305750249713,
          -0.16850578791893359,
          0.059081548095774844
        ],
        [
          -1.0096721860174664,
          -8.269796734383032,
          1.5036630450709008,
          3.072390628164755,
          4.516381945597732,
          7.224912554717838
        ],
        [
          -4.624815814677991,
          0.2152652040334994,
          8.908010597942797,
          4.222132745409738,
          5.627258610650899,
          0.9636140736105752
        ],
        [
          -0.2369997249967183,
          0.28593710613207607,
          0.2718967073934573,
          -0.35315500521459275,
          0.565485662730356,
          0.8843631938865165
        ]
      ]
    },
    {
      "activation": 1,
      "biases": [
        -0.9255199630531739,
        -0.3781274841611851,
        -0.44941455097380467,
        -5.35832876137472,
        0.14079290752365997,
        2.164346896154201,
        -0.37977933203849645,
        -2.2527474660357436,
        1.1481010000294025
      ],
      "cols": 9,
      "rows": 6,
      "weights": [
        [
          -0.5255261218729486,
          -0.6311654761480738,
          -1.9467958637796778,
          2.2600052677633857,
          1.2397562795496428,
          -2.1114875081503195,
          -0.1976228615284237,
          0.3237782078620407,
          -0.8153342057343912
        ],
        [
          0.7831215641407077,
          0.8183877727185873,
          1.4983699603053953,
          2.6614990993023446,
          4.8541380360226265,
          1.8131413009866224,
          -0.9087332289570217,
          3.6578203077969906,
          0.4157392684520008
        ],
        [
          2.0380343154662044,
          -1.4762749539315547,
          -0.3237823570990745,
          -0.860011198945005,
          -2.498030608297927,
          -4.021621535413065,
          3.9235715754537477,
          -1.3656994970287604,
          -1.6320280333942832
        ],
        [
          -2.7350399071717577,
          0.09734723562254767,
          -0.0018608681958268102,
          0.916380605072652,
          -1.613331029915924,
          3.2953717231920896,
          -2.5243856367852824,
          1.557876307969857,
          0.929915901577824
        ],
        [
          0.12342112071473035,
          1.463662278741568,
          -0.1628652505287635,
          1.2732999831908203,
          -4.89270858012729,
          0.5996859195999613,
          -2.7896764809124646,
          -1.4669271799278565,
          0.9140698657275655
        ],
        [
          1.6136970729907412,
          -1.2340238834066504,
          0.905342195931435,
          3.9437103037847714,
          -1.0888142017931721,
          -3.5283812621350794,
          1.7942926212587824,
          0.507908984745458,
          -0.7281706965461624
        ]
      ]
    }
  ]
}
